5.777777777777777513e-02
5.693659800470349946e-02
5.444807113791082231e-02
5.041547859503786588e-02
4.500520147667146087e-02
3.843842758856711589e-02
3.098019801783168103e-02
2.292640217969166630e-02
1.458943933614124597e-02
6.283330766891867883e-03
-1.690913562216053712e-03
-9.058897521620140961e-03
-1.558470669126311124e-02
-2.108045012457633247e-02
-2.541302938364205233e-02
-2.850785616828072078e-02
-3.034942026143914312e-02
-3.097879114078568030e-02
-3.048830837661083148e-02
-2.901386761604785383e-02
-2.672533180295769487e-02
-2.381568458469246474e-02
-2.048959030559536348e-02
-1.695203090900335510e-02
-1.339765546640673405e-02
-1.000140646668456861e-02
-6.910884213796864711e-03
-4.240784282979605073e-03
-2.069601811288922667e-03
-4.386499224476312947e-04
6.467027228850496471e-04
1.213799561231718432e-03
1.317801896261492061e-03
1.035547740555402534e-03
4.586299858234014841e-04
-3.138210083242000967e-04
-1.182178573448507738e-03
-2.052755648677772379e-03
-2.843274538190799020e-03
-3.487097062956242850e-03
-3.936041666533760842e-03
-4.161719210446393306e-03
-4.155422187619059807e-03
-3.926696061662865271e-03
-3.500800542779366250e-03
-2.915328304956921277e-03
-2.216285983827911196e-03
-1.453956033359083896e-03
-6.788486431461712104e-04
6.197749349424994700e-05
7.279947645506840842e-04
1.287516847456492402e-03
1.719138756338661886e-03
2.012277305067205254e-03
2.166851009082140008e-03
2.192199168212588534e-03
2.105388893588338011e-03
1.929093282188071518e-03
1.689242165650950726e-03
1.412648530414252089e-03
1.124799747477332962e-03
8.479752095593095194e-04
5.998138099957913989e-04
3.924095107832229856e-04
2.319649701517947861e-04
1.189857831806967139e-04
4.895499585788857676e-05
1.339229331015808955e-05
1.176980238638812355e-06
-6.302739424247446190e-22
